digraph Tree {
node [shape=box] ;
0 [label="Glucose <= 123.5\nentropy = 0.9325\nsamples = 537\nvalue = [350, 187]\nclass = No"] ;
1 [label="BMI <= 26.95\nentropy = 0.6401\nsamples = 314\nvalue = [263, 51]\nclass = No"] ;
0 -> 1 [labeldistance=2.5, labelangle=45, headlabel="True"] ;
2 [label="entropy = 0.0\nsamples = 91\nvalue = [91, 0]\nclass = No"] ;
1 -> 2 ;
3 [label="Pregnancies <= 5.5\nentropy = 0.7757\nsamples = 223\nvalue = [172, 51]\nclass = No"] ;
1 -> 3 ;
4 [label="Glucose <= 94.5\nentropy = 0.5961\nsamples = 166\nvalue = [142, 24]\nclass = No"] ;
3 -> 4 ;
5 [label="SkinThickness <= 31.5\nentropy = 0.2387\nsamples = 51\nvalue = [49, 2]\nclass = No"] ;
4 -> 5 ;
6 [label="entropy = 0.0\nsamples = 37\nvalue = [37, 0]\nclass = No"] ;
5 -> 6 ;
7 [label="BloodPressure <= 55.0\nentropy = 0.5917\nsamples = 14\nvalue = [12, 2]\nclass = No"] ;
5 -> 7 ;
8 [label="entropy = 0.0\nsamples = 1\nvalue = [0, 1]\nclass = Yes"] ;
7 -> 8 ;
9 [label="Insulin <= 33.75\nentropy = 0.3912\nsamples = 13\nvalue = [12, 1]\nclass = No"] ;
7 -> 9 ;
10 [label="SkinThickness <= 37.0\nentropy = 1.0\nsamples = 2\nvalue = [1, 1]\nclass = No"] ;
9 -> 10 ;
11 [label="entropy = 0.0\nsamples = 1\nvalue = [1, 0]\nclass = No"] ;
10 -> 11 ;
12 [label="entropy = 0.0\nsamples = 1\nvalue = [0, 1]\nclass = Yes"] ;
10 -> 12 ;
13 [label="entropy = 0.0\nsamples = 11\nvalue = [11, 0]\nclass = No"] ;
9 -> 13 ;
14 [label="BloodPressure <= 61.0\nentropy = 0.7042\nsamples = 115\nvalue = [93, 22]\nclass = No"] ;
4 -> 14 ;
15 [label="entropy = 0.0\nsamples = 18\nvalue = [18, 0]\nclass = No"] ;
14 -> 15 ;
16 [label="BloodPressure <= 63.0\nentropy = 0.7724\nsamples = 97\nvalue = [75, 22]\nclass = No"] ;
14 -> 16 ;
17 [label="entropy = 0.0\nsamples = 2\nvalue = [0, 2]\nclass = Yes"] ;
16 -> 17 ;
18 [label="BloodPressure <= 71.0\nentropy = 0.7425\nsamples = 95\nvalue = [75, 20]\nclass = No"] ;
16 -> 18 ;
19 [label="DiabetesPedigreeFunction <= 0.518\nentropy = 0.4395\nsamples = 33\nvalue = [30, 3]\nclass = No"] ;
18 -> 19 ;
20 [label="entropy = 0.0\nsamples = 18\nvalue = [18, 0]\nclass = No"] ;
19 -> 20 ;
21 [label="BloodPressure <= 67.0\nentropy = 0.7219\nsamples = 15\nvalue = [12, 3]\nclass = No"] ;
19 -> 21 ;
22 [label="Pregnancies <= 0.5\nentropy = 1.0\nsamples = 6\nvalue = [3, 3]\nclass = No"] ;
21 -> 22 ;
23 [label="entropy = 0.0\nsamples = 3\nvalue = [3, 0]\nclass = No"] ;
22 -> 23 ;
24 [label="entropy = 0.0\nsamples = 3\nvalue = [0, 3]\nclass = Yes"] ;
22 -> 24 ;
25 [label="entropy = 0.0\nsamples = 9\nvalue = [9, 0]\nclass = No"] ;
21 -> 25 ;
26 [label="SkinThickness <= 21.5\nentropy = 0.8474\nsamples = 62\nvalue = [45, 17]\nclass = No"] ;
18 -> 26 ;
27 [label="entropy = 0.0\nsamples = 6\nvalue = [6, 0]\nclass = No"] ;
26 -> 27 ;
28 [label="BMI <= 32.65\nentropy = 0.8856\nsamples = 56\nvalue = [39, 17]\nclass = No"] ;
26 -> 28 ;
29 [label="Glucose <= 107.5\nentropy = 0.9968\nsamples = 15\nvalue = [7, 8]\nclass = Yes"] ;
28 -> 29 ;
30 [label="BloodPressure <= 79.5\nentropy = 0.5436\nsamples = 8\nvalue = [7, 1]\nclass = No"] ;
29 -> 30 ;
31 [label="entropy = 0.0\nsamples = 6\nvalue = [6, 0]\nclass = No"] ;
30 -> 31 ;
32 [label="DiabetesPedigreeFunction <= 0.469\nentropy = 1.0\nsamples = 2\nvalue = [1, 1]\nclass = No"] ;
30 -> 32 ;
33 [label="entropy = 0.0\nsamples = 1\nvalue = [1, 0]\nclass = No"] ;
32 -> 33 ;
34 [label="entropy = 0.0\nsamples = 1\nvalue = [0, 1]\nclass = Yes"] ;
32 -> 34 ;
35 [label="entropy = 0.0\nsamples = 7\nvalue = [0, 7]\nclass = Yes"] ;
29 -> 35 ;
36 [label="Insulin <= 142.5\nentropy = 0.7593\nsamples = 41\nvalue = [32, 9]\nclass = No"] ;
28 -> 36 ;
37 [label="BMI <= 49.85\nentropy = 0.5665\nsamples = 30\nvalue = [26, 4]\nclass = No"] ;
36 -> 37 ;
38 [label="DiabetesPedigreeFunction <= 0.2915\nentropy = 0.4798\nsamples = 29\nvalue = [26, 3]\nclass = No"] ;
37 -> 38 ;
39 [label="entropy = 0.0\nsamples = 16\nvalue = [16, 0]\nclass = No"] ;
38 -> 39 ;
40 [label="DiabetesPedigreeFunction <= 0.391\nentropy = 0.7793\nsamples = 13\nvalue = [10, 3]\nclass = No"] ;
38 -> 40 ;
41 [label="SkinThickness <= 32.5\nentropy = 1.0\nsamples = 6\nvalue = [3, 3]\nclass = No"] ;
40 -> 41 ;
42 [label="BMI <= 34.85\nentropy = 0.8113\nsamples = 4\nvalue = [1, 3]\nclass = Yes"] ;
41 -> 42 ;
43 [label="entropy = 0.0\nsamples = 1\nvalue = [1, 0]\nclass = No"] ;
42 -> 43 ;
44 [label="entropy = 0.0\nsamples = 3\nvalue = [0, 3]\nclass = Yes"] ;
42 -> 44 ;
45 [label="entropy = 0.0\nsamples = 2\nvalue = [2, 0]\nclass = No"] ;
41 -> 45 ;
46 [label="entropy = 0.0\nsamples = 7\nvalue = [7, 0]\nclass = No"] ;
40 -> 46 ;
47 [label="entropy = 0.0\nsamples = 1\nvalue = [0, 1]\nclass = Yes"] ;
37 -> 47 ;
48 [label="SkinThickness <= 43.5\nentropy = 0.994\nsamples = 11\nvalue = [6, 5]\nclass = No"] ;
36 -> 48 ;
49 [label="SkinThickness <= 26.0\nentropy = 0.8113\nsamples = 8\nvalue = [6, 2]\nclass = No"] ;
48 -> 49 ;
50 [label="entropy = 0.0\nsamples = 2\nvalue = [0, 2]\nclass = Yes"] ;
49 -> 50 ;
51 [label="entropy = 0.0\nsamples = 6\nvalue = [6, 0]\nclass = No"] ;
49 -> 51 ;
52 [label="entropy = 0.0\nsamples = 3\nvalue = [0, 3]\nclass = Yes"] ;
48 -> 52 ;
53 [label="DiabetesPedigreeFunction <= 0.776\nentropy = 0.998\nsamples = 57\nvalue = [30, 27]\nclass = No"] ;
3 -> 53 ;
54 [label="Glucose <= 99.5\nentropy = 0.9441\nsamples = 47\nvalue = [30, 17]\nclass = No"] ;
53 -> 54 ;
55 [label="entropy = 0.0\nsamples = 12\nvalue = [12, 0]\nclass = No"] ;
54 -> 55 ;
56 [label="BMI <= 30.4\nentropy = 0.9994\nsamples = 35\nvalue = [18, 17]\nclass = No"] ;
54 -> 56 ;
57 [label="BloodPressure <= 75.0\nentropy = 0.8905\nsamples = 13\nvalue = [4, 9]\nclass = Yes"] ;
56 -> 57 ;
58 [label="entropy = 0.0\nsamples = 6\nvalue = [0, 6]\nclass = Yes"] ;
57 -> 58 ;
59 [label="SkinThickness <= 34.0\nentropy = 0.9852\nsamples = 7\nvalue = [4, 3]\nclass = No"] ;
57 -> 59 ;
60 [label="BloodPressure <= 85.0\nentropy = 0.7219\nsamples = 5\nvalue = [4, 1]\nclass = No"] ;
59 -> 60 ;
61 [label="entropy = 0.0\nsamples = 3\nvalue = [3, 0]\nclass = No"] ;
60 -> 61 ;
62 [label="BloodPressure <= 91.0\nentropy = 1.0\nsamples = 2\nvalue = [1, 1]\nclass = No"] ;
60 -> 62 ;
63 [label="entropy = 0.0\nsamples = 1\nvalue = [0, 1]\nclass = Yes"] ;
62 -> 63 ;
64 [label="entropy = 0.0\nsamples = 1\nvalue = [1, 0]\nclass = No"] ;
62 -> 64 ;
65 [label="entropy = 0.0\nsamples = 2\nvalue = [0, 2]\nclass = Yes"] ;
59 -> 65 ;
66 [label="BMI <= 38.85\nentropy = 0.9457\nsamples = 22\nvalue = [14, 8]\nclass = No"] ;
56 -> 66 ;
67 [label="DiabetesPedigreeFunction <= 0.179\nentropy = 0.8813\nsamples = 20\nvalue = [14, 6]\nclass = No"] ;
66 -> 67 ;
68 [label="entropy = 0.0\nsamples = 4\nvalue = [4, 0]\nclass = No"] ;
67 -> 68 ;
69 [label="BMI <= 36.7\nentropy = 0.9544\nsamples = 16\nvalue = [10, 6]\nclass = No"] ;
67 -> 69 ;
70 [label="BloodPressure <= 74.0\nentropy = 0.9957\nsamples = 13\nvalue = [7, 6]\nclass = No"] ;
69 -> 70 ;
71 [label="BloodPressure <= 67.0\nentropy = 0.8113\nsamples = 8\nvalue = [6, 2]\nclass = No"] ;
70 -> 71 ;
72 [label="DiabetesPedigreeFunction <= 0.259\nentropy = 1.0\nsamples = 4\nvalue = [2, 2]\nclass = No"] ;
71 -> 72 ;
73 [label="entropy = 0.0\nsamples = 2\nvalue = [0, 2]\nclass = Yes"] ;
72 -> 73 ;
74 [label="entropy = 0.0\nsamples = 2\nvalue = [2, 0]\nclass = No"] ;
72 -> 74 ;
75 [label="entropy = 0.0\nsamples = 4\nvalue = [4, 0]\nclass = No"] ;
71 -> 75 ;
76 [label="BloodPressure <= 86.0\nentropy = 0.7219\nsamples = 5\nvalue = [1, 4]\nclass = Yes"] ;
70 -> 76 ;
77 [label="entropy = 0.0\nsamples = 4\nvalue = [0, 4]\nclass = Yes"] ;
76 -> 77 ;
78 [label="entropy = 0.0\nsamples = 1\nvalue = [1, 0]\nclass = No"] ;
76 -> 78 ;
79 [label="entropy = 0.0\nsamples = 3\nvalue = [3, 0]\nclass = No"] ;
69 -> 79 ;
80 [label="entropy = 0.0\nsamples = 2\nvalue = [0, 2]\nclass = Yes"] ;
66 -> 80 ;
81 [label="entropy = 0.0\nsamples = 10\nvalue = [0, 10]\nclass = Yes"] ;
53 -> 81 ;
82 [label="Glucose <= 158.5\nentropy = 0.9649\nsamples = 223\nvalue = [87, 136]\nclass = Yes"] ;
0 -> 82 [labeldistance=2.5, labelangle=-45, headlabel="False"] ;
83 [label="BMI <= 41.65\nentropy = 1.0\nsamples = 152\nvalue = [76, 76]\nclass = No"] ;
82 -> 83 ;
84 [label="DiabetesPedigreeFunction <= 0.2185\nentropy = 0.9908\nsamples = 133\nvalue = [74, 59]\nclass = No"] ;
83 -> 84 ;
85 [label="SkinThickness <= 23.5\nentropy = 0.6769\nsamples = 28\nvalue = [23, 5]\nclass = No"] ;
84 -> 85 ;
86 [label="Pregnancies <= 5.5\nentropy = 0.2864\nsamples = 20\nvalue = [19, 1]\nclass = No"] ;
85 -> 86 ;
87 [label="entropy = 0.0\nsamples = 16\nvalue = [16, 0]\nclass = No"] ;
86 -> 87 ;
88 [label="Glucose <= 142.0\nentropy = 0.8113\nsamples = 4\nvalue = [3, 1]\nclass = No"] ;
86 -> 88 ;
89 [label="entropy = 0.0\nsamples = 3\nvalue = [3, 0]\nclass = No"] ;
88 -> 89 ;
90 [label="entropy = 0.0\nsamples = 1\nvalue = [0, 1]\nclass = Yes"] ;
88 -> 90 ;
91 [label="SkinThickness <= 28.5\nentropy = 1.0\nsamples = 8\nvalue = [4, 4]\nclass = No"] ;
85 -> 91 ;
92 [label="entropy = 0.0\nsamples = 2\nvalue = [0, 2]\nclass = Yes"] ;
91 -> 92 ;
93 [label="Glucose <= 136.5\nentropy = 0.9183\nsamples = 6\nvalue = [4, 2]\nclass = No"] ;
91 -> 93 ;
94 [label="Glucose <= 128.5\nentropy = 0.9183\nsamples = 3\nvalue = [1, 2]\nclass = Yes"] ;
93 -> 94 ;
95 [label="entropy = 0.0\nsamples = 1\nvalue = [1, 0]\nclass = No"] ;
94 -> 95 ;
96 [label="entropy = 0.0\nsamples = 2\nvalue = [0, 2]\nclass = Yes"] ;
94 -> 96 ;
97 [label="entropy = 0.0\nsamples = 3\nvalue = [3, 0]\nclass = No"] ;
93 -> 97 ;
98 [label="SkinThickness <= 16.0\nentropy = 0.9994\nsamples = 105\nvalue = [51, 54]\nclass = Yes"] ;
84 -> 98 ;
99 [label="entropy = 0.0\nsamples = 7\nvalue = [7, 0]\nclass = No"] ;
98 -> 99 ;
100 [label="DiabetesPedigreeFunction <= 0.857\nentropy = 0.9925\nsamples = 98\nvalue = [44, 54]\nclass = Yes"] ;
98 -> 100 ;
101 [label="BMI <= 23.15\nentropy = 0.9999\nsamples = 85\nvalue = [42, 43]\nclass = Yes"] ;
100 -> 101 ;
102 [label="entropy = 0.0\nsamples = 3\nvalue = [3, 0]\nclass = No"] ;
101 -> 102 ;
103 [label="Insulin <= 117.5\nentropy = 0.9983\nsamples = 82\nvalue = [39, 43]\nclass = Yes"] ;
101 -> 103 ;
104 [label="Glucose <= 127.0\nentropy = 0.9441\nsamples = 47\nvalue = [17, 30]\nclass = Yes"] ;
103 -> 104 ;
105 [label="entropy = 0.0\nsamples = 6\nvalue = [0, 6]\nclass = Yes"] ;
104 -> 105 ;
106 [label="Pregnancies <= 1.5\nentropy = 0.9789\nsamples = 41\nvalue = [17, 24]\nclass = Yes"] ;
104 -> 106 ;
107 [label="BMI <= 31.4\nentropy = 0.8113\nsamples = 8\nvalue = [6, 2]\nclass = No"] ;
106 -> 107 ;
108 [label="entropy = 0.0\nsamples = 4\nvalue = [4, 0]\nclass = No"] ;
107 -> 108 ;
109 [label="SkinThickness <= 24.5\nentropy = 1.0\nsamples = 4\nvalue = [2, 2]\nclass = No"] ;
107 -> 109 ;
110 [label="entropy = 0.0\nsamples = 2\nvalue = [0, 2]\nclass = Yes"] ;
109 -> 110 ;
111 [label="entropy = 0.0\nsamples = 2\nvalue = [2, 0]\nclass = No"] ;
109 -> 111 ;
112 [label="Glucose <= 150.0\nentropy = 0.9183\nsamples = 33\nvalue = [11, 22]\nclass = Yes"] ;
106 -> 112 ;
113 [label="BMI <= 37.95\nentropy = 0.9576\nsamples = 29\nvalue = [11, 18]\nclass = Yes"] ;
112 -> 113 ;
114 [label="Pregnancies <= 9.5\nentropy = 0.9896\nsamples = 25\nvalue = [11, 14]\nclass = Yes"] ;
113 -> 114 ;
115 [label="BloodPressure <= 81.0\nentropy = 0.9457\nsamples = 22\nvalue = [8, 14]\nclass = Yes"] ;
114 -> 115 ;
116 [label="Glucose <= 144.0\nentropy = 0.7496\nsamples = 14\nvalue = [3, 11]\nclass = Yes"] ;
115 -> 116 ;
117 [label="Glucose <= 128.5\nentropy = 0.4395\nsamples = 11\nvalue = [1, 10]\nclass = Yes"] ;
116 -> 117 ;
118 [label="entropy = 0.0\nsamples = 1\nvalue = [1, 0]\nclass = No"] ;
117 -> 118 ;
119 [label="entropy = 0.0\nsamples = 10\nvalue = [0, 10]\nclass = Yes"] ;
117 -> 119 ;
120 [label="Pregnancies <= 5.5\nentropy = 0.9183\nsamples = 3\nvalue = [2, 1]\nclass = No"] ;
116 -> 120 ;
121 [label="entropy = 0.0\nsamples = 2\nvalue = [2, 0]\nclass = No"] ;
120 -> 121 ;
122 [label="entropy = 0.0\nsamples = 1\nvalue = [0, 1]\nclass = Yes"] ;
120 -> 122 ;
123 [label="BMI <= 32.35\nentropy = 0.9544\nsamples = 8\nvalue = [5, 3]\nclass = No"] ;
115 -> 123 ;
124 [label="Glucose <= 144.0\nentropy = 0.65\nsamples = 6\nvalue = [5, 1]\nclass = No"] ;
123 -> 124 ;
125 [label="entropy = 0.0\nsamples = 5\nvalue = [5, 0]\nclass = No"] ;
124 -> 125 ;
126 [label="entropy = 0.0\nsamples = 1\nvalue = [0, 1]\nclass = Yes"] ;
124 -> 126 ;
127 [label="entropy = 0.0\nsamples = 2\nvalue = [0, 2]\nclass = Yes"] ;
123 -> 127 ;
128 [label="entropy = 0.0\nsamples = 3\nvalue = [3, 0]\nclass = No"] ;
114 -> 128 ;
129 [label="entropy = 0.0\nsamples = 4\nvalue = [0, 4]\nclass = Yes"] ;
113 -> 129 ;
130 [label="entropy = 0.0\nsamples = 4\nvalue = [0, 4]\nclass = Yes"] ;
112 -> 130 ;
131 [label="Insulin <= 309.0\nentropy = 0.9518\nsamples = 35\nvalue = [22, 13]\nclass = No"] ;
103 -> 131 ;
132 [label="Insulin <= 199.0\nentropy = 0.8498\nsamples = 29\nvalue = [21, 8]\nclass = No"] ;
131 -> 132 ;
133 [label="BMI <= 31.45\nentropy = 0.9587\nsamples = 21\nvalue = [13, 8]\nclass = No"] ;
132 -> 133 ;
134 [label="BloodPressure <= 79.0\nentropy = 0.4395\nsamples = 11\nvalue = [10, 1]\nclass = No"] ;
133 -> 134 ;
135 [label="entropy = 0.0\nsamples = 10\nvalue = [10, 0]\nclass = No"] ;
134 -> 135 ;
136 [label="entropy = 0.0\nsamples = 1\nvalue = [0, 1]\nclass = Yes"] ;
134 -> 136 ;
137 [label="Insulin <= 123.5\nentropy = 0.8813\nsamples = 10\nvalue = [3, 7]\nclass = Yes"] ;
133 -> 137 ;
138 [label="entropy = 0.0\nsamples = 2\nvalue = [2, 0]\nclass = No"] ;
137 -> 138 ;
139 [label="Glucose <= 126.0\nentropy = 0.5436\nsamples = 8\nvalue = [1, 7]\nclass = Yes"] ;
137 -> 139 ;
140 [label="entropy = 0.0\nsamples = 1\nvalue = [1, 0]\nclass = No"] ;
139 -> 140 ;
141 [label="entropy = 0.0\nsamples = 7\nvalue = [0, 7]\nclass = Yes"] ;
139 -> 141 ;
142 [label="entropy = 0.0\nsamples = 8\nvalue = [8, 0]\nclass = No"] ;
132 -> 142 ;
143 [label="BloodPressure <= 83.0\nentropy = 0.65\nsamples = 6\nvalue = [1, 5]\nclass = Yes"] ;
131 -> 143 ;
144 [label="entropy = 0.0\nsamples = 5\nvalue = [0, 5]\nclass = Yes"] ;
143 -> 144 ;
145 [label="entropy = 0.0\nsamples = 1\nvalue = [1, 0]\nclass = No"] ;
143 -> 145 ;
146 [label="BMI <= 39.8\nentropy = 0.6194\nsamples = 13\nvalue = [2, 11]\nclass = Yes"] ;
100 -> 146 ;
147 [label="entropy = 0.0\nsamples = 11\nvalue = [0, 11]\nclass = Yes"] ;
146 -> 147 ;
148 [label="entropy = 0.0\nsamples = 2\nvalue = [2, 0]\nclass = No"] ;
146 -> 148 ;
149 [label="SkinThickness <= 50.0\nentropy = 0.4855\nsamples = 19\nvalue = [2, 17]\nclass = Yes"] ;
83 -> 149 ;
150 [label="DiabetesPedigreeFunction <= 0.1975\nentropy = 0.3095\nsamples = 18\nvalue = [1, 17]\nclass = Yes"] ;
149 -> 150 ;
151 [label="entropy = 0.0\nsamples = 1\nvalue = [1, 0]\nclass = No"] ;
150 -> 151 ;
152 [label="entropy = 0.0\nsamples = 17\nvalue = [0, 17]\nclass = Yes"] ;
150 -> 152 ;
153 [label="entropy = 0.0\nsamples = 1\nvalue = [1, 0]\nclass = No"] ;
149 -> 153 ;
154 [label="BMI <= 29.1\nentropy = 0.622\nsamples = 71\nvalue = [11, 60]\nclass = Yes"] ;
82 -> 154 ;
155 [label="BloodPressure <= 79.0\nentropy = 0.9852\nsamples = 14\nvalue = [6, 8]\nclass = Yes"] ;
154 -> 155 ;
156 [label="BloodPressure <= 56.0\nentropy = 0.8454\nsamples = 11\nvalue = [3, 8]\nclass = Yes"] ;
155 -> 156 ;
157 [label="entropy = 0.0\nsamples = 2\nvalue = [2, 0]\nclass = No"] ;
156 -> 157 ;
158 [label="BMI <= 26.2\nentropy = 0.5033\nsamples = 9\nvalue = [1, 8]\nclass = Yes"] ;
156 -> 158 ;
159 [label="entropy = 0.0\nsamples = 7\nvalue = [0, 7]\nclass = Yes"] ;
158 -> 159 ;
160 [label="Glucose <= 174.5\nentropy = 1.0\nsamples = 2\nvalue = [1, 1]\nclass = No"] ;
158 -> 160 ;
161 [label="entropy = 0.0\nsamples = 1\nvalue = [1, 0]\nclass = No"] ;
160 -> 161 ;
162 [label="entropy = 0.0\nsamples = 1\nvalue = [0, 1]\nclass = Yes"] ;
160 -> 162 ;
163 [label="entropy = 0.0\nsamples = 3\nvalue = [3, 0]\nclass = No"] ;
155 -> 163 ;
164 [label="Insulin <= 629.5\nentropy = 0.4288\nsamples = 57\nvalue = [5, 52]\nclass = Yes"] ;
154 -> 164 ;
165 [label="DiabetesPedigreeFunction <= 0.3005\nentropy = 0.3095\nsamples = 54\nvalue = [3, 51]\nclass = Yes"] ;
164 -> 165 ;
166 [label="DiabetesPedigreeFunction <= 0.2905\nentropy = 0.6723\nsamples = 17\nvalue = [3, 14]\nclass = Yes"] ;
165 -> 166 ;
167 [label="SkinThickness <= 27.0\nentropy = 0.5436\nsamples = 16\nvalue = [2, 14]\nclass = Yes"] ;
166 -> 167 ;
168 [label="entropy = 0.0\nsamples = 8\nvalue = [0, 8]\nclass = Yes"] ;
167 -> 168 ;
169 [label="Insulin <= 266.0\nentropy = 0.8113\nsamples = 8\nvalue = [2, 6]\nclass = Yes"] ;
167 -> 169 ;
170 [label="Glucose <= 166.0\nentropy = 1.0\nsamples = 4\nvalue = [2, 2]\nclass = No"] ;
169 -> 170 ;
171 [label="entropy = 0.0\nsamples = 1\nvalue = [1, 0]\nclass = No"] ;
170 -> 171 ;
172 [label="DiabetesPedigreeFunction <= 0.1645\nentropy = 0.9183\nsamples = 3\nvalue = [1, 2]\nclass = Yes"] ;
170 -> 172 ;
173 [label="entropy = 0.0\nsamples = 1\nvalue = [1, 0]\nclass = No"] ;
172 -> 173 ;
174 [label="entropy = 0.0\nsamples = 2\nvalue = [0, 2]\nclass = Yes"] ;
172 -> 174 ;
175 [label="entropy = 0.0\nsamples = 4\nvalue = [0, 4]\nclass = Yes"] ;
169 -> 175 ;
176 [label="entropy = 0.0\nsamples = 1\nvalue = [1, 0]\nclass = No"] ;
166 -> 176 ;
177 [label="entropy = 0.0\nsamples = 37\nvalue = [0, 37]\nclass = Yes"] ;
165 -> 177 ;
178 [label="Insulin <= 795.0\nentropy = 0.9183\nsamples = 3\nvalue = [2, 1]\nclass = No"] ;
164 -> 178 ;
179 [label="entropy = 0.0\nsamples = 2\nvalue = [2, 0]\nclass = No"] ;
178 -> 179 ;
180 [label="entropy = 0.0\nsamples = 1\nvalue = [0, 1]\nclass = Yes"] ;
178 -> 180 ;
}