digraph Tree {
node [shape=box] ;
0 [label="PPE <= 0.1351\nentropy = 0.8351\nsamples = 128\nvalue = [34, 94]\nclass = No"] ;
1 [label="MDVP:Fhi(Hz) <= 228.6665\nentropy = 0.6962\nsamples = 32\nvalue = [26, 6]\nclass = Yes"] ;
0 -> 1 [labeldistance=2.5, labelangle=45, headlabel="True"] ;
11 [label="RPDE <= 0.3358\nentropy = 0.9183\nsamples = 18\nvalue = [12, 6]\nclass = Yes"] ;
1 -> 11 ;
13 [label="entropy = 0.0\nsamples = 3\nvalue = [0, 3]\nclass = No"] ;
11 -> 13 ;
14 [label="D2 <= 2.2452\nentropy = 0.7219\nsamples = 15\nvalue = [12, 3]\nclass = Yes"] ;
11 -> 14 ;
15 [label="entropy = 0.0\nsamples = 10\nvalue = [10, 0]\nclass = Yes"] ;
14 -> 15 ;
16 [label="NHR <= 0.0052\nentropy = 0.971\nsamples = 5\nvalue = [2, 3]\nclass = No"] ;
14 -> 16 ;
19 [label="entropy = 0.0\nsamples = 2\nvalue = [2, 0]\nclass = Yes"] ;
16 -> 19 ;
20 [label="entropy = 0.0\nsamples = 3\nvalue = [0, 3]\nclass = No"] ;
16 -> 20 ;
12 [label="entropy = 0.0\nsamples = 14\nvalue = [14, 0]\nclass = Yes"] ;
1 -> 12 ;
2 [label="MDVP:APQ <= 0.0198\nentropy = 0.4138\nsamples = 96\nvalue = [8, 88]\nclass = No"] ;
0 -> 2 [labeldistance=2.5, labelangle=-45, headlabel="False"] ;
3 [label="MDVP:Fo(Hz) <= 117.25\nentropy = 0.684\nsamples = 44\nvalue = [8, 36]\nclass = No"] ;
2 -> 3 ;
5 [label="Shimmer:DDA <= 0.0276\nentropy = 0.994\nsamples = 11\nvalue = [6, 5]\nclass = Yes"] ;
3 -> 5 ;
7 [label="entropy = 0.0\nsamples = 6\nvalue = [6, 0]\nclass = Yes"] ;
5 -> 7 ;
8 [label="entropy = 0.0\nsamples = 5\nvalue = [0, 5]\nclass = No"] ;
5 -> 8 ;
6 [label="Shimmer:DDA <= 0.0383\nentropy = 0.3298\nsamples = 33\nvalue = [2, 31]\nclass = No"] ;
3 -> 6 ;
9 [label="entropy = 0.0\nsamples = 28\nvalue = [0, 28]\nclass = No"] ;
6 -> 9 ;
10 [label="NHR <= 0.0141\nentropy = 0.971\nsamples = 5\nvalue = [2, 3]\nclass = No"] ;
6 -> 10 ;
17 [label="entropy = 0.0\nsamples = 2\nvalue = [2, 0]\nclass = Yes"] ;
10 -> 17 ;
18 [label="entropy = 0.0\nsamples = 3\nvalue = [0, 3]\nclass = No"] ;
10 -> 18 ;
4 [label="entropy = 0.0\nsamples = 52\nvalue = [0, 52]\nclass = No"] ;
2 -> 4 ;
}