digraph Tree {
node [shape=box] ;
0 [label="MDVP:Fo(Hz) <= 223.363\nentropy = 0.8351\nsamples = 128\nvalue = [34, 94]\nclass = No"] ;
1 [label="spread2 <= 0.1786\nentropy = 0.7416\nsamples = 119\nvalue = [25, 94]\nclass = No"] ;
0 -> 1 [labeldistance=2.5, labelangle=45, headlabel="True"] ;
2 [label="MDVP:Fhi(Hz) <= 205.209\nentropy = 0.9968\nsamples = 30\nvalue = [14, 16]\nclass = No"] ;
1 -> 2 ;
3 [label="MDVP:Fo(Hz) <= 117.7935\nentropy = 0.7219\nsamples = 20\nvalue = [4, 16]\nclass = No"] ;
2 -> 3 ;
4 [label="DFA <= 0.7669\nentropy = 0.9183\nsamples = 6\nvalue = [4, 2]\nclass = Yes"] ;
3 -> 4 ;
5 [label="entropy = 0.0\nsamples = 4\nvalue = [4, 0]\nclass = Yes"] ;
4 -> 5 ;
6 [label="entropy = 0.0\nsamples = 2\nvalue = [0, 2]\nclass = No"] ;
4 -> 6 ;
7 [label="entropy = 0.0\nsamples = 14\nvalue = [0, 14]\nclass = No"] ;
3 -> 7 ;
8 [label="entropy = 0.0\nsamples = 10\nvalue = [10, 0]\nclass = Yes"] ;
2 -> 8 ;
9 [label="D2 <= 2.2376\nentropy = 0.5396\nsamples = 89\nvalue = [11, 78]\nclass = No"] ;
1 -> 9 ;
10 [label="DFA <= 0.7878\nentropy = 0.9612\nsamples = 26\nvalue = [10, 16]\nclass = No"] ;
9 -> 10 ;
11 [label="RPDE <= 0.4673\nentropy = 0.9911\nsamples = 18\nvalue = [10, 8]\nclass = Yes"] ;
10 -> 11 ;
12 [label="entropy = 0.0\nsamples = 5\nvalue = [5, 0]\nclass = Yes"] ;
11 -> 12 ;
13 [label="RPDE <= 0.5205\nentropy = 0.9612\nsamples = 13\nvalue = [5, 8]\nclass = No"] ;
11 -> 13 ;
14 [label="entropy = 0.0\nsamples = 5\nvalue = [0, 5]\nclass = No"] ;
13 -> 14 ;
15 [label="D2 <= 2.0225\nentropy = 0.9544\nsamples = 8\nvalue = [5, 3]\nclass = Yes"] ;
13 -> 15 ;
16 [label="MDVP:Fo(Hz) <= 122.356\nentropy = 0.8113\nsamples = 4\nvalue = [1, 3]\nclass = No"] ;
15 -> 16 ;
17 [label="entropy = 0.0\nsamples = 3\nvalue = [0, 3]\nclass = No"] ;
16 -> 17 ;
18 [label="entropy = 0.0\nsamples = 1\nvalue = [1, 0]\nclass = Yes"] ;
16 -> 18 ;
19 [label="entropy = 0.0\nsamples = 4\nvalue = [4, 0]\nclass = Yes"] ;
15 -> 19 ;
20 [label="entropy = 0.0\nsamples = 8\nvalue = [0, 8]\nclass = No"] ;
10 -> 20 ;
21 [label="DFA <= 0.7598\nentropy = 0.1176\nsamples = 63\nvalue = [1, 62]\nclass = No"] ;
9 -> 21 ;
22 [label="entropy = 0.0\nsamples = 50\nvalue = [0, 50]\nclass = No"] ;
21 -> 22 ;
23 [label="DFA <= 0.7614\nentropy = 0.3912\nsamples = 13\nvalue = [1, 12]\nclass = No"] ;
21 -> 23 ;
24 [label="entropy = 0.0\nsamples = 1\nvalue = [1, 0]\nclass = Yes"] ;
23 -> 24 ;
25 [label="entropy = 0.0\nsamples = 12\nvalue = [0, 12]\nclass = No"] ;
23 -> 25 ;
26 [label="entropy = 0.0\nsamples = 9\nvalue = [9, 0]\nclass = Yes"] ;
0 -> 26 [labeldistance=2.5, labelangle=-45, headlabel="False"] ;
}