digraph Tree {
node [shape=box] ;
0 [label="MDVP:Fo(Hz) <= 223.363\nentropy = 0.8351\nsamples = 128\nvalue = [34, 94]\nclass = No"] ;
1 [label="spread2 <= 0.1786\nentropy = 0.7416\nsamples = 119\nvalue = [25, 94]\nclass = No"] ;
0 -> 1 [labeldistance=2.5, labelangle=45, headlabel="True"] ;
3 [label="MDVP:Fo(Hz) <= 170.538\nentropy = 0.9968\nsamples = 30\nvalue = [14, 16]\nclass = No"] ;
1 -> 3 ;
7 [label="MDVP:Fo(Hz) <= 117.7935\nentropy = 0.7219\nsamples = 20\nvalue = [4, 16]\nclass = No"] ;
3 -> 7 ;
9 [label="MDVP:Fo(Hz) <= 106.6835\nentropy = 0.9183\nsamples = 6\nvalue = [4, 2]\nclass = Yes"] ;
7 -> 9 ;
13 [label="entropy = 0.0\nsamples = 2\nvalue = [0, 2]\nclass = No"] ;
9 -> 13 ;
14 [label="entropy = 0.0\nsamples = 4\nvalue = [4, 0]\nclass = Yes"] ;
9 -> 14 ;
10 [label="entropy = 0.0\nsamples = 14\nvalue = [0, 14]\nclass = No"] ;
7 -> 10 ;
8 [label="entropy = 0.0\nsamples = 10\nvalue = [10, 0]\nclass = Yes"] ;
3 -> 8 ;
4 [label="D2 <= 2.2376\nentropy = 0.5396\nsamples = 89\nvalue = [11, 78]\nclass = No"] ;
1 -> 4 ;
5 [label="MDVP:Flo(Hz) <= 115.2925\nentropy = 0.9612\nsamples = 26\nvalue = [10, 16]\nclass = No"] ;
4 -> 5 ;
11 [label="RPDE <= 0.4144\nentropy = 0.8454\nsamples = 22\nvalue = [6, 16]\nclass = No"] ;
5 -> 11 ;
15 [label="entropy = 0.0\nsamples = 2\nvalue = [2, 0]\nclass = Yes"] ;
11 -> 15 ;
16 [label="D2 <= 2.0244\nentropy = 0.7219\nsamples = 20\nvalue = [4, 16]\nclass = No"] ;
11 -> 16 ;
17 [label="entropy = 0.0\nsamples = 10\nvalue = [0, 10]\nclass = No"] ;
16 -> 17 ;
18 [label="entropy = 0.971\nsamples = 10\nvalue = [4, 6]\nclass = No"] ;
16 -> 18 ;
12 [label="entropy = 0.0\nsamples = 4\nvalue = [4, 0]\nclass = Yes"] ;
5 -> 12 ;
6 [label="entropy = 0.1176\nsamples = 63\nvalue = [1, 62]\nclass = No"] ;
4 -> 6 ;
2 [label="entropy = 0.0\nsamples = 9\nvalue = [9, 0]\nclass = Yes"] ;
0 -> 2 [labeldistance=2.5, labelangle=-45, headlabel="False"] ;
}